4 50
de -1.6672441 -3.3392012 -3.0046992 1.279425 -0.79793507 1.7085459 -0.19038554 5.1456499 3.7655449 -3.572701 4.4157825 -2.7564058 -0.47364476 -0.15944429 -2.229481 3.3460684 0.76670301 -4.8116345 -1.9145615 2.5721531 -1.3802634 -1.5083286 -0.96994537 -1.7599868 6.0282125 -3.9912431 1.1109633 2.0802245 2.2910745 -2.3375857 0.43433186 -1.9433912 2.1585197 -1.8236556 0.12826845 -1.0947458 0.95011222 1.216897 2.9103639 2.0052416 -2.9120388 1.6254755 -1.8047545 0.99345922 1.7075629 -3.5922585 2.1254437 3.171962 1.4815043 0.075057313
la -3.6347194 -4.1021438 -4.6796479 3.8508217 0.17290822 0.17417681 1.6186316 4.5288081 6.5010056 0.25322148 4.2638884 -3.7963843 -0.4228566 -2.149668 -1.103548 5.25318 -0.17765269 -1.5698588 1.0000634 5.3684177 0.32780194 4.0502706 -3.8053267 -2.5634995 4.7600875 -2.603898 1.9845108 2.8750873 2.9124472 -2.8980844 1.7783012 -0.98868436 3.5705652 3.9980962 -1.1268733 -2.3754203 -4.1066132 5.0150375 1.8209692 2.2753325 -2.6697955 0.12427396 -3.1908805 2.9437494 -3.0214858 -0.1412185 -0.51497447 0.5155521 3.6852624 0.71166009
en 0.63681358 -1.0838249 0.45466679 0.065485977 3.0775108 0.080317855 0.2287735 3.2489431 4.3739595 -2.9203117 4.6689482 -1.7491463 1.2665443 0.029714171 -3.106499 3.435575 0.044288628 -4.9513793 -1.8021866 1.5453868 0.41631791 -2.8748577 1.2274603 -0.39618519 3.1478734 -3.020941 -0.25326887 2.3228357 0.67719442 1.110103 -0.4878222 0.004195739 -0.77072513 -1.9889605 -0.66135752 -0.23240627 0.91355258 0.67383003 1.7409096 1.2094817 -2.0394166 3.3279114 1.3814347 2.4717247 1.8676292 -5.2868428 0.099049419 3.9150808 3.1631222 -2.22401
el 0.5065223 3.4499459 -2.7382503 -3.2053785 1.7348866 3.7519174 -0.32518965 3.3005948 2.0000815 6.0250707 0.37227041 -3.9656799 -1.0677934 1.7091578 -1.6031253 1.5886252 -3.8108902 -1.247044 -2.7533159 -0.5353424 -4.7697983 -6.0188808 -0.77886087 -6.8991952 -2.5312068 -0.42561468 -1.8220878 1.0705761 4.2094378 -3.956779 -5.7502918 -5.5486574 2.0704846 -6.0447078 1.5961152 1.445115 1.6310496 -0.69162285 7.0456052 1.345683 0.20248602 7.4631939 -5.9469976 -0.62283587 -4.0334549 -3.8407905 0.35387319 1.2629193 3.3767381 0.71435595
